digraph Tree {
node [shape=box, style="filled, rounded", color="black", fontname=helvetica] ;
edge [fontname=helvetica] ;
0 [label="SL <= 5.3\ngini = 0.649\nsamples = 71\nvalue = [35, 53, 32]\nclass = versicolor", fillcolor="#d5f9e4"] ;
1 [label="PW <= 0.8\ngini = 0.204\nsamples = 22\nvalue = [32, 2, 2]\nclass = setosa", fillcolor="#e89050"] ;
0 -> 1 [labeldistance=2.5, labelangle=45, headlabel="True"] ;
2 [label="gini = 0.0\nsamples = 19\nvalue = [32, 0, 0]\nclass = setosa", fillcolor="#e58139"] ;
1 -> 2 ;
3 [label="SW <= 2.45\ngini = 0.5\nsamples = 3\nvalue = [0, 2, 2]\nclass = versicolor", fillcolor="#ffffff"] ;
1 -> 3 ;
4 [label="gini = 0.0\nsamples = 1\nvalue = [0, 1, 0]\nclass = versicolor", fillcolor="#39e581"] ;
3 -> 4 ;
5 [label="PL <= 4.2\ngini = 0.444\nsamples = 2\nvalue = [0, 1, 2]\nclass = virginica", fillcolor="#c09cf2"] ;
3 -> 5 ;
6 [label="gini = 0.0\nsamples = 1\nvalue = [0, 1, 0]\nclass = versicolor", fillcolor="#39e581"] ;
5 -> 6 ;
7 [label="gini = 0.0\nsamples = 1\nvalue = [0, 0, 2]\nclass = virginica", fillcolor="#8139e5"] ;
5 -> 7 ;
8 [label="PL <= 4.95\ngini = 0.503\nsamples = 49\nvalue = [3, 51, 30]\nclass = versicolor", fillcolor="#b2f5ce"] ;
0 -> 8 [labeldistance=2.5, labelangle=-45, headlabel="False"] ;
9 [label="PL <= 2.6\ngini = 0.111\nsamples = 29\nvalue = [3, 48, 0]\nclass = versicolor", fillcolor="#45e789"] ;
8 -> 9 ;
10 [label="gini = 0.0\nsamples = 3\nvalue = [3, 0, 0]\nclass = setosa", fillcolor="#e58139"] ;
9 -> 10 ;
11 [label="gini = 0.0\nsamples = 26\nvalue = [0, 48, 0]\nclass = versicolor", fillcolor="#39e581"] ;
9 -> 11 ;
12 [label="SL <= 6.1\ngini = 0.165\nsamples = 20\nvalue = [0, 3, 30]\nclass = virginica", fillcolor="#8e4de8"] ;
8 -> 12 ;
13 [label="PL <= 5.05\ngini = 0.444\nsamples = 4\nvalue = [0, 2, 4]\nclass = virginica", fillcolor="#c09cf2"] ;
12 -> 13 ;
14 [label="gini = 0.0\nsamples = 2\nvalue = [0, 0, 3]\nclass = virginica", fillcolor="#8139e5"] ;
13 -> 14 ;
15 [label="PW <= 2.0\ngini = 0.444\nsamples = 2\nvalue = [0, 2, 1]\nclass = versicolor", fillcolor="#9cf2c0"] ;
13 -> 15 ;
16 [label="gini = 0.0\nsamples = 1\nvalue = [0, 2, 0]\nclass = versicolor", fillcolor="#39e581"] ;
15 -> 16 ;
17 [label="gini = 0.0\nsamples = 1\nvalue = [0, 0, 1]\nclass = virginica", fillcolor="#8139e5"] ;
15 -> 17 ;
18 [label="PW <= 1.75\ngini = 0.071\nsamples = 16\nvalue = [0, 1, 26]\nclass = virginica", fillcolor="#8641e6"] ;
12 -> 18 ;
19 [label="PL <= 5.05\ngini = 0.375\nsamples = 3\nvalue = [0, 1, 3]\nclass = virginica", fillcolor="#ab7bee"] ;
18 -> 19 ;
20 [label="gini = 0.0\nsamples = 1\nvalue = [0, 1, 0]\nclass = versicolor", fillcolor="#39e581"] ;
19 -> 20 ;
21 [label="gini = 0.0\nsamples = 2\nvalue = [0, 0, 3]\nclass = virginica", fillcolor="#8139e5"] ;
19 -> 21 ;
22 [label="gini = 0.0\nsamples = 13\nvalue = [0, 0, 23]\nclass = virginica", fillcolor="#8139e5"] ;
18 -> 22 ;
}